digraph Tree {
node [shape=box, style="filled, rounded", color="black", fontname=helvetica] ;
edge [fontname=helvetica] ;
0 [label="sqft_above <= 1865.0\ngini = 0.482\nsamples = 274\nvalue = [163, 111]\nclass = False", fillcolor="#f7d7c0"] ;
1 [label="sqft_living15 <= 1990.0\ngini = 0.27\nsamples = 180\nvalue = [151, 29]\nclass = False", fillcolor="#ea995f"] ;
0 -> 1 [labeldistance=2.5, labelangle=45, headlabel="True"] ;
2 [label="price/sqft_living15 <= 172.96\ngini = 0.172\nsamples = 158\nvalue = [143, 15]\nclass = False", fillcolor="#e88e4e"] ;
1 -> 2 ;
3 [label="bathrooms <= 2.625\ngini = 0.033\nsamples = 118\nvalue = [116, 2]\nclass = False", fillcolor="#e5833c"] ;
2 -> 3 ;
4 [label="sqft_above <= 1840.0\ngini = 0.017\nsamples = 117\nvalue = [116, 1]\nclass = False", fillcolor="#e5823b"] ;
3 -> 4 ;
5 [label="gini = 0.0\nsamples = 115\nvalue = [115, 0]\nclass = False", fillcolor="#e58139"] ;
4 -> 5 ;
6 [label="price/sqft_above <= 162.3\ngini = 0.5\nsamples = 2\nvalue = [1, 1]\nclass = False", fillcolor="#ffffff"] ;
4 -> 6 ;
7 [label="gini = 0.0\nsamples = 1\nvalue = [1, 0]\nclass = False", fillcolor="#e58139"] ;
6 -> 7 ;
8 [label="gini = 0.0\nsamples = 1\nvalue = [0, 1]\nclass = True", fillcolor="#399de5"] ;
6 -> 8 ;
9 [label="gini = 0.0\nsamples = 1\nvalue = [0, 1]\nclass = True", fillcolor="#399de5"] ;
3 -> 9 ;
10 [label="sqft_living15 <= 1605.0\ngini = 0.439\nsamples = 40\nvalue = [27, 13]\nclass = False", fillcolor="#f2be98"] ;
2 -> 10 ;
11 [label="price/sqft_lot <= 12.63\ngini = 0.185\nsamples = 29\nvalue = [26, 3]\nclass = False", fillcolor="#e89050"] ;
10 -> 11 ;
12 [label="gini = 0.0\nsamples = 2\nvalue = [0, 2]\nclass = True", fillcolor="#399de5"] ;
11 -> 12 ;
13 [label="price/sqft_living15 <= 245.85\ngini = 0.071\nsamples = 27\nvalue = [26, 1]\nclass = False", fillcolor="#e68641"] ;
11 -> 13 ;
14 [label="gini = 0.0\nsamples = 26\nvalue = [26, 0]\nclass = False", fillcolor="#e58139"] ;
13 -> 14 ;
15 [label="gini = 0.0\nsamples = 1\nvalue = [0, 1]\nclass = True", fillcolor="#399de5"] ;
13 -> 15 ;
16 [label="sqft_living <= 1521.5\ngini = 0.165\nsamples = 11\nvalue = [1, 10]\nclass = True", fillcolor="#4da7e8"] ;
10 -> 16 ;
17 [label="gini = 0.0\nsamples = 1\nvalue = [1, 0]\nclass = False", fillcolor="#e58139"] ;
16 -> 17 ;
18 [label="gini = 0.0\nsamples = 10\nvalue = [0, 10]\nclass = True", fillcolor="#399de5"] ;
16 -> 18 ;
19 [label="price/lifetime <= 7281.745\ngini = 0.463\nsamples = 22\nvalue = [8, 14]\nclass = True", fillcolor="#aad5f4"] ;
1 -> 19 ;
20 [label="lifetime <= 58.5\ngini = 0.245\nsamples = 7\nvalue = [6, 1]\nclass = False", fillcolor="#e9965a"] ;
19 -> 20 ;
21 [label="gini = 0.0\nsamples = 6\nvalue = [6, 0]\nclass = False", fillcolor="#e58139"] ;
20 -> 21 ;
22 [label="gini = 0.0\nsamples = 1\nvalue = [0, 1]\nclass = True", fillcolor="#399de5"] ;
20 -> 22 ;
23 [label="price/sqft_lot <= 49.155\ngini = 0.231\nsamples = 15\nvalue = [2, 13]\nclass = True", fillcolor="#57ace9"] ;
19 -> 23 ;
24 [label="gini = 0.0\nsamples = 12\nvalue = [0, 12]\nclass = True", fillcolor="#399de5"] ;
23 -> 24 ;
25 [label="sqft_living15 <= 2020.0\ngini = 0.444\nsamples = 3\nvalue = [2, 1]\nclass = False", fillcolor="#f2c09c"] ;
23 -> 25 ;
26 [label="gini = 0.0\nsamples = 1\nvalue = [0, 1]\nclass = True", fillcolor="#399de5"] ;
25 -> 26 ;
27 [label="gini = 0.0\nsamples = 2\nvalue = [2, 0]\nclass = False", fillcolor="#e58139"] ;
25 -> 27 ;
28 [label="price/sqft_above <= 136.56\ngini = 0.223\nsamples = 94\nvalue = [12, 82]\nclass = True", fillcolor="#56abe9"] ;
0 -> 28 [labeldistance=2.5, labelangle=-45, headlabel="False"] ;
29 [label="sqft_living <= 2295.0\ngini = 0.494\nsamples = 18\nvalue = [8, 10]\nclass = True", fillcolor="#d7ebfa"] ;
28 -> 29 ;
30 [label="gini = 0.0\nsamples = 6\nvalue = [6, 0]\nclass = False", fillcolor="#e58139"] ;
29 -> 30 ;
31 [label="price/sqft_living <= 103.46\ngini = 0.278\nsamples = 12\nvalue = [2, 10]\nclass = True", fillcolor="#61b1ea"] ;
29 -> 31 ;
32 [label="gini = 0.0\nsamples = 1\nvalue = [1, 0]\nclass = False", fillcolor="#e58139"] ;
31 -> 32 ;
33 [label="sqft_living15 <= 2165.0\ngini = 0.165\nsamples = 11\nvalue = [1, 10]\nclass = True", fillcolor="#4da7e8"] ;
31 -> 33 ;
34 [label="price/sqft_lot <= 31.015\ngini = 0.5\nsamples = 2\nvalue = [1, 1]\nclass = False", fillcolor="#ffffff"] ;
33 -> 34 ;
35 [label="gini = 0.0\nsamples = 1\nvalue = [0, 1]\nclass = True", fillcolor="#399de5"] ;
34 -> 35 ;
36 [label="gini = 0.0\nsamples = 1\nvalue = [1, 0]\nclass = False", fillcolor="#e58139"] ;
34 -> 36 ;
37 [label="gini = 0.0\nsamples = 9\nvalue = [0, 9]\nclass = True", fillcolor="#399de5"] ;
33 -> 37 ;
38 [label="price/lifetime <= 5162.785\ngini = 0.1\nsamples = 76\nvalue = [4, 72]\nclass = True", fillcolor="#44a2e6"] ;
28 -> 38 ;
39 [label="gini = 0.0\nsamples = 1\nvalue = [1, 0]\nclass = False", fillcolor="#e58139"] ;
38 -> 39 ;
40 [label="sqft_living <= 1925.0\ngini = 0.077\nsamples = 75\nvalue = [3, 72]\nclass = True", fillcolor="#41a1e6"] ;
38 -> 40 ;
41 [label="price/sqft_living <= 161.165\ngini = 0.375\nsamples = 8\nvalue = [2, 6]\nclass = True", fillcolor="#7bbeee"] ;
40 -> 41 ;
42 [label="gini = 0.0\nsamples = 2\nvalue = [2, 0]\nclass = False", fillcolor="#e58139"] ;
41 -> 42 ;
43 [label="gini = 0.0\nsamples = 6\nvalue = [0, 6]\nclass = True", fillcolor="#399de5"] ;
41 -> 43 ;
44 [label="lifetime <= 13.5\ngini = 0.029\nsamples = 67\nvalue = [1, 66]\nclass = True", fillcolor="#3c9ee5"] ;
40 -> 44 ;
45 [label="grade <= 7.5\ngini = 0.375\nsamples = 4\nvalue = [1, 3]\nclass = True", fillcolor="#7bbeee"] ;
44 -> 45 ;
46 [label="gini = 0.0\nsamples = 1\nvalue = [1, 0]\nclass = False", fillcolor="#e58139"] ;
45 -> 46 ;
47 [label="gini = 0.0\nsamples = 3\nvalue = [0, 3]\nclass = True", fillcolor="#399de5"] ;
45 -> 47 ;
48 [label="gini = 0.0\nsamples = 63\nvalue = [0, 63]\nclass = True", fillcolor="#399de5"] ;
44 -> 48 ;
}